<?xml version="1.0"?>
<opencv_storage>
<myhaar type_id="opencv-haar-classifier">
  <size>
    24 24</size>
  <stages>
    <_>
      <trees>
        <_>
          <_>
            <feature>
              <rects>
                <_>
                  1 13 18 6 -1.</_>
                <_>
                  7 15 6 2 9.</_></rects>
              <tilted>0</tilted></feature>
            <threshold>-0.0204885900020599</threshold>
            <left_val>0.4357688128948212</left_val>
            <right_val>-0.8522179126739502</right_val></_></_>
        <_>
          <_>
            <feature>
              <rects>
                <_>
                  9 0 10 16 -1.</_>
                <_>
                  9 4 10 8 2.</_></rects>
              <tilted>0</tilted></feature>
            <threshold>-0.0319720618426800</threshold>
            <left_val>0.4408644139766693</left_val>
            <right_val>-0.5323898792266846</right_val></_></_></trees>
      <stage_threshold>-0.4113535881042481</stage_threshold>
      <parent>-1</parent>
      <next>-1</next></_>
    <_>
      <trees>
        <_>
          <_>
            <feature>
              <rects>
                <_>
                  7 13 1 6 -1.</_>
                <_>
                  7 16 1 3 2.</_></rects>
              <tilted>0</tilted></feature>
            <threshold>-1.1682560434564948e-003</threshold>
            <left_val>0.4912283122539520</left_val>
            <right_val>-0.6511635184288025</right_val></_></_>
        <_>
          <_>
            <feature>
              <rects>
                <_>
                  11 9 2 8 -1.</_>
                <_>
                  12 9 1 4 2.</_>
                <_>
                  11 13 1 4 2.</_></rects>
              <tilted>0</tilted></feature>
            <threshold>-7.8252441016957164e-004</threshold>
            <left_val>0.5151411890983582</left_val>
            <right_val>-0.7403035163879395</right_val></_></_>
        <_>
          <_>
            <feature>
              <rects>
                <_>
                  3 0 6 4 -1.</_>
                <_>
                  3 2 6 2 2.</_></rects>
              <tilted>0</tilted></feature>
            <threshold>-1.0431580012664199e-003</threshold>
            <left_val>0.4541581869125366</left_val>
            <right_val>-0.8521173000335693</right_val></_></_></trees>
      <stage_threshold>0.1542523056268692</stage_threshold>
      <parent>0</parent>
      <next>-1</next></_>
    <_>
      <trees>
        <_>
          <_>
            <feature>
              <rects>
                <_>
                  3 11 5 3 -1.</_>
                <_>
                  2 12 5 1 3.</_></rects>
              <tilted>1</tilted></feature>
            <threshold>3.9555691182613373e-003</threshold>
            <left_val>-0.5260661244392395</left_val>
            <right_val>0.5873017907142639</right_val></_></_>
        <_>
          <_>
            <feature>
              <rects>
                <_>
                  17 2 2 14 -1.</_>
                <_>
                  17 2 1 14 2.</_></rects>
              <tilted>0</tilted></feature>
            <threshold>-2.2929490078240633e-003</threshold>
            <left_val>0.5116363763809204</left_val>
            <right_val>-0.4337028861045837</right_val></_></_>
        <_>
          <_>
            <feature>
              <rects>
                <_>
                  7 11 2 2 -1.</_>
                <_>
                  7 11 1 1 2.</_>
                <_>
                  8 12 1 1 2.</_></rects>
              <tilted>0</tilted></feature>
            <threshold>4.3049501255154610e-004</threshold>
            <left_val>-0.5922623276710510</left_val>
            <right_val>0.6139401793479919</right_val></_></_></trees>
      <stage_threshold>-0.6066920161247253</stage_threshold>
      <parent>1</parent>
      <next>-1</next></_>
    <_>
      <trees>
        <_>
          <_>
            <feature>
              <rects>
                <_>
                  11 18 2 6 -1.</_>
                <_>
                  11 20 2 2 3.</_></rects>
              <tilted>0</tilted></feature>
            <threshold>-3.4430059604346752e-003</threshold>
            <left_val>0.7177916169166565</left_val>
            <right_val>-0.4936712086200714</right_val></_></_>
        <_>
          <_>
            <feature>
              <rects>
                <_>
                  11 8 4 2 -1.</_>
                <_>
                  13 8 2 1 2.</_>
                <_>
                  11 9 2 1 2.</_></rects>
              <tilted>0</tilted></feature>
            <threshold>-1.8393519567325711e-003</threshold>
            <left_val>0.4662775099277496</left_val>
            <right_val>-0.0592717416584492</right_val></_></_>
        <_>
          <_>
            <feature>
              <rects>
                <_>
                  0 7 6 12 -1.</_>
                <_>
                  0 7 3 6 2.</_>
                <_>
                  3 13 3 6 2.</_></rects>
              <tilted>0</tilted></feature>
            <threshold>0.0110101401805878</threshold>
            <left_val>-0.6013398170471191</left_val>
            <right_val>0.6362876892089844</right_val></_></_></trees>
      <stage_threshold>-0.6287335157394409</stage_threshold>
      <parent>2</parent>
      <next>-1</next></_>
    <_>
      <trees>
        <_>
          <_>
            <feature>
              <rects>
                <_>
                  4 0 3 1 -1.</_>
                <_>
                  5 0 1 1 3.</_></rects>
              <tilted>0</tilted></feature>
            <threshold>-5.6005541409831494e-005</threshold>
            <left_val>-1.</left_val>
            <right_val>0.3698632121086121</right_val></_></_></trees>
      <stage_threshold>0.3698632121086121</stage_threshold>
      <parent>3</parent>
      <next>-1</next></_>
    <_>
      <trees>
        <_>
          <_>
            <feature>
              <rects>
                <_>
                  0 14 14 7 -1.</_>
                <_>
                  7 14 7 7 2.</_></rects>
              <tilted>0</tilted></feature>
            <threshold>-0.0707921385765076</threshold>
            <left_val>0.7721521258354187</left_val>
            <right_val>-0.5041326880455017</right_val></_></_>
        <_>
          <_>
            <feature>
              <rects>
                <_>
                  19 2 3 2 -1.</_>
                <_>
                  20 2 1 2 3.</_></rects>
              <tilted>0</tilted></feature>
            <threshold>9.9802843760699034e-004</threshold>
            <left_val>0.2623634934425354</left_val>
            <right_val>-1.0000050067901611</right_val></_></_>
        <_>
          <_>
            <feature>
              <rects>
                <_>
                  0 14 20 9 -1.</_>
                <_>
                  10 14 10 9 2.</_></rects>
              <tilted>0</tilted></feature>
            <threshold>0.2108038961887360</threshold>
            <left_val>-0.4371899068355560</left_val>
            <right_val>0.8657804727554321</right_val></_></_></trees>
      <stage_threshold>0.5973256826400757</stage_threshold>
      <parent>4</parent>
      <next>-1</next></_>
    <_>
      <trees>
        <_>
          <_>
            <feature>
              <rects>
                <_>
                  4 18 1 4 -1.</_>
                <_>
                  3 19 1 2 2.</_></rects>
              <tilted>1</tilted></feature>
            <threshold>-7.2874221950769424e-004</threshold>
            <left_val>-1.</left_val>
            <right_val>0.3422822058200836</right_val></_></_></trees>
      <stage_threshold>0.3422822058200836</stage_threshold>
      <parent>5</parent>
      <next>-1</next></_>
    <_>
      <trees>
        <_>
          <_>
            <feature>
              <rects>
                <_>
                  8 12 8 10 -1.</_>
                <_>
                  8 12 4 5 2.</_>
                <_>
                  12 17 4 5 2.</_></rects>
              <tilted>0</tilted></feature>
            <threshold>-1.4852549647912383e-003</threshold>
            <left_val>0.3768118023872376</left_val>
            <right_val>-0.8387107253074646</right_val></_></_>
        <_>
          <_>
            <feature>
              <rects>
                <_>
                  2 7 21 14 -1.</_>
                <_>
                  2 14 21 7 2.</_></rects>
              <tilted>0</tilted></feature>
            <threshold>0.0184996500611305</threshold>
            <left_val>0.2514607012271881</left_val>
            <right_val>-0.8537139892578125</right_val></_></_>
        <_>
          <_>
            <feature>
              <rects>
                <_>
                  11 10 2 6 -1.</_>
                <_>
                  12 10 1 6 2.</_></rects>
              <tilted>0</tilted></feature>
            <threshold>1.0161070385947824e-003</threshold>
            <left_val>0.3616088926792145</left_val>
            <right_val>-0.8789535164833069</right_val></_></_>
        <_>
          <_>
            <feature>
              <rects>
                <_>
                  8 2 12 7 -1.</_>
                <_>
                  11 2 6 7 2.</_></rects>
              <tilted>0</tilted></feature>
            <threshold>-0.0428019203245640</threshold>
            <left_val>0.4865629971027374</left_val>
            <right_val>-0.2456416040658951</right_val></_></_></trees>
      <stage_threshold>-0.4712828099727631</stage_threshold>
      <parent>6</parent>
      <next>-1</next></_>
    <_>
      <trees>
        <_>
          <_>
            <feature>
              <rects>
                <_>
                  4 5 14 4 -1.</_>
                <_>
                  4 5 7 2 2.</_>
                <_>
                  11 7 7 2 2.</_></rects>
              <tilted>0</tilted></feature>
            <threshold>0.0163318794220686</threshold>
            <left_val>-0.3594306111335754</left_val>
            <right_val>0.8487399220466614</right_val></_></_>
        <_>
          <_>
            <feature>
              <rects>
                <_>
                  13 11 3 2 -1.</_>
                <_>
                  13 12 3 1 2.</_></rects>
              <tilted>0</tilted></feature>
            <threshold>9.8361657001078129e-004</threshold>
            <left_val>-0.3918507099151611</left_val>
            <right_val>0.5195891857147217</right_val></_></_>
        <_>
          <_>
            <feature>
              <rects>
                <_>
                  8 11 3 2 -1.</_>
                <_>
                  8 12 3 1 2.</_></rects>
              <tilted>0</tilted></feature>
            <threshold>1.1864569969475269e-003</threshold>
            <left_val>-0.6713840961456299</left_val>
            <right_val>0.6349617838859558</right_val></_></_></trees>
      <stage_threshold>-0.2144948989152908</stage_threshold>
      <parent>7</parent>
      <next>-1</next></_>
    <_>
      <trees>
        <_>
          <_>
            <feature>
              <rects>
                <_>
                  0 0 2 2 -1.</_>
                <_>
                  1 0 1 2 2.</_></rects>
              <tilted>0</tilted></feature>
            <threshold>-1.1855299817398190e-004</threshold>
            <left_val>-1.</left_val>
            <right_val>0.3114758133888245</right_val></_></_>
        <_>
          <_>
            <feature>
              <rects>
                <_>
                  9 14 6 8 -1.</_>
                <_>
                  12 14 3 4 2.</_>
                <_>
                  9 18 3 4 2.</_></rects>
              <tilted>0</tilted></feature>
            <threshold>1.7204449977725744e-003</threshold>
            <left_val>-0.8645862936973572</left_val>
            <right_val>0.2847019135951996</right_val></_></_>
        <_>
          <_>
            <feature>
              <rects>
                <_>
                  5 0 13 24 -1.</_>
                <_>
                  5 6 13 12 2.</_></rects>
              <tilted>0</tilted></feature>
            <threshold>-0.1242841035127640</threshold>
            <left_val>0.7382972836494446</left_val>
            <right_val>-0.4844807088375092</right_val></_></_></trees>
      <stage_threshold>0.1116970032453537</stage_threshold>
      <parent>8</parent>
      <next>-1</next></_>
    <_>
      <trees>
        <_>
          <_>
            <feature>
              <rects>
                <_>
                  0 3 1 3 -1.</_>
                <_>
                  0 4 1 1 3.</_></rects>
              <tilted>0</tilted></feature>
            <threshold>2.6376839377917349e-004</threshold>
            <left_val>0.2944985926151276</left_val>
            <right_val>-0.9999998211860657</right_val></_></_>
        <_>
          <_>
            <feature>
              <rects>
                <_>
                  19 3 3 12 -1.</_>
                <_>
                  20 3 1 12 3.</_></rects>
              <tilted>0</tilted></feature>
            <threshold>1.3078419724479318e-003</threshold>
            <left_val>-0.3537574112415314</left_val>
            <right_val>0.2384296953678131</right_val></_></_>
        <_>
          <_>
            <feature>
              <rects>
                <_>
                  2 2 3 2 -1.</_>
                <_>
                  3 2 1 2 3.</_></rects>
              <tilted>0</tilted></feature>
            <threshold>-2.8736429521813989e-004</threshold>
            <left_val>-1.</left_val>
            <right_val>0.2631169855594635</right_val></_></_></trees>
      <stage_threshold>0.2038581073284149</stage_threshold>
      <parent>9</parent>
      <next>-1</next></_>
    <_>
      <trees>
        <_>
          <_>
            <feature>
              <rects>
                <_>
                  0 8 24 1 -1.</_>
                <_>
                  12 8 12 1 2.</_></rects>
              <tilted>0</tilted></feature>
            <threshold>-1.9506709650158882e-003</threshold>
            <left_val>-0.7080289721488953</left_val>
            <right_val>0.3688215911388397</right_val></_></_>
        <_>
          <_>
            <feature>
              <rects>
                <_>
                  14 0 6 2 -1.</_>
                <_>
                  14 0 6 1 2.</_></rects>
              <tilted>1</tilted></feature>
            <threshold>-3.9726970717310905e-003</threshold>
            <left_val>0.4541406929492950</left_val>
            <right_val>-0.1536864042282105</right_val></_></_>
        <_>
          <_>
            <feature>
              <rects>
                <_>
                  0 5 24 9 -1.</_>
                <_>
                  6 5 12 9 2.</_></rects>
              <tilted>0</tilted></feature>
            <threshold>-0.2208168059587479</threshold>
            <left_val>0.8675429821014404</left_val>
            <right_val>-0.3370431959629059</right_val></_></_>
        <_>
          <_>
            <feature>
              <rects>
                <_>
                  18 8 2 6 -1.</_>
                <_>
                  19 8 1 3 2.</_>
                <_>
                  18 11 1 3 2.</_></rects>
              <tilted>0</tilted></feature>
            <threshold>2.7711219154298306e-003</threshold>
            <left_val>-0.0805315673351288</left_val>
            <right_val>0.5783594250679016</right_val></_></_></trees>
      <stage_threshold>-0.2024396061897278</stage_threshold>
      <parent>10</parent>
      <next>-1</next></_></stages></myhaar>
</opencv_storage>
